<?xml version="1.0"?>
<opencv_storage>
<cascade>
  <stageType>BOOST</stageType>
  <featureType>HAAR</featureType>
  <height>20</height>
  <width>20</width>
  <stageParams>
    <boostType>GAB</boostType>
    <minHitRate>9.9900001287460327e-01</minHitRate>
    <maxFalseAlarm>5.0000000745058060e-02</maxFalseAlarm>
    <weightTrimRate>9.4999999999999996e-01</weightTrimRate>
    <maxDepth>1</maxDepth>
    <maxWeakCount>100</maxWeakCount></stageParams>
  <featureParams>
    <maxCatCount>0</maxCatCount>
    <featSize>1</featSize>
    <mode>ALL</mode></featureParams>
  <stageNum>3</stageNum>
  <stages>
    <!-- stage 0 -->
    <_>
      <maxWeakCount>7</maxWeakCount>
      <stageThreshold>-3.1586426496505737e-01</stageThreshold>
      <weakClassifiers>
        <_>
          <internalNodes>
            0 -1 11 1.3653790578246117e-02</internalNodes>
          <leafValues>
            -6.6399997472763062e-01 8.5371428728103638e-01</leafValues></_>
        <_>
          <internalNodes>
            0 -1 7 3.9018359966576099e-03</internalNodes>
          <leafValues>
            -5.5471372604370117e-01 9.5280474424362183e-01</leafValues></_>
        <_>
          <internalNodes>
            0 -1 1 1.6183212399482727e-02</internalNodes>
          <leafValues>
            -9.3943536281585693e-01 5.9777039289474487e-01</leafValues></_>
        <_>
          <internalNodes>
            0 -1 12 -6.4408462494611740e-03</internalNodes>
          <leafValues>
            9.9634081125259399e-01 -5.0209408998489380e-01</leafValues></_>
        <_>
          <internalNodes>
            0 -1 14 4.3493201956152916e-03</internalNodes>
          <leafValues>
            -4.7138342261314392e-01 9.8233795166015625e-01</leafValues></_>
        <_>
          <internalNodes>
            0 -1 0 1.8495580181479454e-02</internalNodes>
          <leafValues>
            -9.3247115612030029e-01 5.8283329010009766e-01</leafValues></_>
        <_>
          <internalNodes>
            0 -1 9 -1.5635188668966293e-02</internalNodes>
          <leafValues>
            6.9572335481643677e-01 -6.7170518636703491e-01</leafValues></_></weakClassifiers></_>
    <!-- stage 1 -->
    <_>
      <maxWeakCount>8</maxWeakCount>
      <stageThreshold>-3.7746003270149231e-01</stageThreshold>
      <weakClassifiers>
        <_>
          <internalNodes>
            0 -1 10 4.7739818692207336e-03</internalNodes>
          <leafValues>
            -5.5537593364715576e-01 9.0039318799972534e-01</leafValues></_>
        <_>
          <internalNodes>
            0 -1 8 4.7446871176362038e-03</internalNodes>
          <leafValues>
            -4.8329913616180420e-01 8.8407564163208008e-01</leafValues></_>
        <_>
          <internalNodes>
            0 -1 16 8.4797590970993042e-03</internalNodes>
          <leafValues>
            -8.9930516481399536e-01 5.5701065063476562e-01</leafValues></_>
        <_>
          <internalNodes>
            0 -1 2 -2.1131727844476700e-02</internalNodes>
          <leafValues>
            3.9880329370498657e-01 -8.9493674039840698e-01</leafValues></_>
        <_>
          <internalNodes>
            0 -1 4 4.4025309383869171e-02</internalNodes>
          <leafValues>
            3.6083841323852539e-01 -9.2915713787078857e-01</leafValues></_>
        <_>
          <internalNodes>
            0 -1 5 1.0708958841860294e-02</internalNodes>
          <leafValues>
            -4.8733639717102051e-01 8.8927841186523438e-01</leafValues></_>
        <_>
          <internalNodes>
            0 -1 17 6.2775108963251114e-03</internalNodes>
          <leafValues>
            -5.9301519393920898e-01 9.5200753211975098e-01</leafValues></_>
        <_>
          <internalNodes>
            0 -1 3 2.3262511604116298e-05</internalNodes>
          <leafValues>
            5.1385527849197388e-01 -8.8729685544967651e-01</leafValues></_></weakClassifiers></_>
    <!-- stage 2 -->
    <_>
      <maxWeakCount>6</maxWeakCount>
      <stageThreshold>2.5915164500474930e-02</stageThreshold>
      <weakClassifiers>
        <_>
          <internalNodes>
            0 -1 3 -6.0892096371389925e-05</internalNodes>
          <leafValues>
            -8.9269405603408813e-01 6.9572955369949341e-01</leafValues></_>
        <_>
          <internalNodes>
            0 -1 13 4.8867561854422092e-03</internalNodes>
          <leafValues>
            -6.1538398265838623e-01 8.7668430805206299e-01</leafValues></_>
        <_>
          <internalNodes>
            0 -1 18 -6.2557279306929559e-05</internalNodes>
          <leafValues>
            -9.4198793172836304e-01 4.3829277157783508e-01</leafValues></_>
        <_>
          <internalNodes>
            0 -1 6 -5.3515760228037834e-03</internalNodes>
          <leafValues>
            9.7418695688247681e-01 -4.6478238701820374e-01</leafValues></_>
        <_>
          <internalNodes>
            0 -1 15 4.1870614513754845e-03</internalNodes>
          <leafValues>
            -5.3443962335586548e-01 9.2916870117187500e-01</leafValues></_>
        <_>
          <internalNodes>
            0 -1 18 3.8893707824172452e-05</internalNodes>
          <leafValues>
            6.5595310926437378e-01 -1.</leafValues></_></weakClassifiers></_></stages>
  <features>
    <_>
      <rects>
        <_>
          0 0 20 5 -1.</_>
        <_>
          5 0 10 5 2.</_></rects>
      <tilted>0</tilted></_>
    <_>
      <rects>
        <_>
          0 15 20 5 -1.</_>
        <_>
          5 15 10 5 2.</_></rects>
      <tilted>0</tilted></_>
    <_>
      <rects>
        <_>
          1 14 19 6 -1.</_>
        <_>
          1 17 19 3 2.</_></rects>
      <tilted>0</tilted></_>
    <_>
      <rects>
        <_>
          1 17 2 1 -1.</_>
        <_>
          1 17 1 1 2.</_></rects>
      <tilted>1</tilted></_>
    <_>
      <rects>
        <_>
          2 3 10 15 -1.</_>
        <_>
          7 3 5 15 2.</_></rects>
      <tilted>0</tilted></_>
    <_>
      <rects>
        <_>
          5 9 2 3 -1.</_>
        <_>
          5 10 2 1 3.</_></rects>
      <tilted>0</tilted></_>
    <_>
      <rects>
        <_>
          6 6 2 2 -1.</_>
        <_>
          6 6 1 1 2.</_>
        <_>
          7 7 1 1 2.</_></rects>
      <tilted>0</tilted></_>
    <_>
      <rects>
        <_>
          6 8 3 1 -1.</_>
        <_>
          7 8 1 1 3.</_></rects>
      <tilted>0</tilted></_>
    <_>
      <rects>
        <_>
          7 6 3 1 -1.</_>
        <_>
          8 6 1 1 3.</_></rects>
      <tilted>0</tilted></_>
    <_>
      <rects>
        <_>
          7 9 6 3 -1.</_>
        <_>
          9 10 2 1 9.</_></rects>
      <tilted>0</tilted></_>
    <_>
      <rects>
        <_>
          7 14 3 1 -1.</_>
        <_>
          8 14 1 1 3.</_></rects>
      <tilted>0</tilted></_>
    <_>
      <rects>
        <_>
          9 7 3 3 -1.</_>
        <_>
          10 8 1 1 9.</_></rects>
      <tilted>0</tilted></_>
    <_>
      <rects>
        <_>
          9 13 3 1 -1.</_>
        <_>
          10 13 1 1 3.</_></rects>
      <tilted>0</tilted></_>
    <_>
      <rects>
        <_>
          10 5 3 1 -1.</_>
        <_>
          11 5 1 1 3.</_></rects>
      <tilted>0</tilted></_>
    <_>
      <rects>
        <_>
          11 11 2 2 -1.</_>
        <_>
          11 11 1 1 2.</_>
        <_>
          12 12 1 1 2.</_></rects>
      <tilted>0</tilted></_>
    <_>
      <rects>
        <_>
          12 12 2 2 -1.</_>
        <_>
          12 12 1 1 2.</_>
        <_>
          13 13 1 1 2.</_></rects>
      <tilted>0</tilted></_>
    <_>
      <rects>
        <_>
          14 0 6 6 -1.</_>
        <_>
          14 3 6 3 2.</_></rects>
      <tilted>0</tilted></_>
    <_>
      <rects>
        <_>
          14 9 1 3 -1.</_>
        <_>
          14 10 1 1 3.</_></rects>
      <tilted>0</tilted></_>
    <_>
      <rects>
        <_>
          19 0 1 3 -1.</_>
        <_>
          19 1 1 1 3.</_></rects>
      <tilted>0</tilted></_></features></cascade>
</opencv_storage>
